<?xml version="1.0"?>
<opencv_storage>
<stage3>
  <maxWeakCount>7</maxWeakCount>
  <stageThreshold>-5.1737111806869507e-001</stageThreshold>
  <weakClassifiers>
    <_>
      <internalNodes>
        0 -1 18328 2.8509768890216947e-004</internalNodes>
      <leafValues>
        -4.2465752363204956e-001 4.2465752363204956e-001</leafValues></_>
    <_>
      <internalNodes>
        0 -1 35559 2.8338935226202011e-003</internalNodes>
      <leafValues>
        -3.3347177505493164e-001 6.8706101179122925e-001</leafValues></_>
    <_>
      <internalNodes>
        0 -1 8846 -9.3274703249335289e-003</internalNodes>
      <leafValues>
        8.5588490962982178e-001 -2.0598907768726349e-001</leafValues></_>
    <_>
      <internalNodes>
        0 -1 75512 7.9931924119591713e-004</internalNodes>
      <leafValues>
        -2.7480277419090271e-001 6.9128209352493286e-001</leafValues></_>
    <_>
      <internalNodes>
        0 -1 62183 2.3585264571011066e-003</internalNodes>
      <leafValues>
        -3.4010764956474304e-001 6.8027096986770630e-001</leafValues></_>
    <_>
      <internalNodes>
        0 -1 48197 -3.0620475299656391e-003</internalNodes>
      <leafValues>
        6.1624050140380859e-001 -3.5658195614814758e-001</leafValues></_>
    <_>
      <internalNodes>
        0 -1 21474 5.4521067067980766e-004</internalNodes>
      <leafValues>
        -3.9716032147407532e-001 7.1170073747634888e-001</leafValues></_></weakClassifiers></stage3>
</opencv_storage>
